<?xml version="1.0"?>
<opencv_storage>
<cascade>
  <stageType>BOOST</stageType>
  <featureType>LBP</featureType>
  <height>40</height>
  <width>25</width>
  <stageParams>
    <boostType>GAB</boostType>
    <minHitRate>9.9500000476837158e-01</minHitRate>
    <maxFalseAlarm>5.0000000000000000e-01</maxFalseAlarm>
    <weightTrimRate>9.4999999999999996e-01</weightTrimRate>
    <maxDepth>1</maxDepth>
    <maxWeakCount>100</maxWeakCount></stageParams>
  <featureParams>
    <maxCatCount>256</maxCatCount>
    <featSize>1</featSize></featureParams>
  <stageNum>10</stageNum>
  <stages>
    <!-- stage 0 -->
    <_>
      <maxWeakCount>1</maxWeakCount>
      <stageThreshold>9.3964958190917969e-01</stageThreshold>
      <weakClassifiers>
        <_>
          <internalNodes>
            0 -1 1 -170524681 -3015457 -82710057 -572544001 -138281003
            -7215649 -209199109 -525313</internalNodes>
          <leafValues>
            -9.8895579576492310e-01 9.3964958190917969e-01</leafValues></_></weakClassifiers></_>
    <!-- stage 1 -->
    <_>
      <maxWeakCount>2</maxWeakCount>
      <stageThreshold>-4.7783348709344864e-02</stageThreshold>
      <weakClassifiers>
        <_>
          <internalNodes>
            0 -1 14 -2098177 -580914693 -644624289 -1990753413 -11797505
            -68437557 -70254593 -1073741825</internalNodes>
          <leafValues>
            -9.5964568853378296e-01 9.4543063640594482e-01</leafValues></_>
        <_>
          <internalNodes>
            0 -1 16 -119558401 1509884575 419942783 1528764335 -85206017
            -33829973 -89129217 -1</internalNodes>
          <leafValues>
            -9.3147158622741699e-01 9.1186231374740601e-01</leafValues></_></weakClassifiers></_>
    <!-- stage 2 -->
    <_>
      <maxWeakCount>2</maxWeakCount>
      <stageThreshold>-4.6389222145080566e-02</stageThreshold>
      <weakClassifiers>
        <_>
          <internalNodes>
            0 -1 17 -16975873 -70721187 -181808165 -605687347 -78840865
            -75245311 -40974945 -1</internalNodes>
          <leafValues>
            -9.1108888387680054e-01 8.9518231153488159e-01</leafValues></_>
        <_>
          <internalNodes>
            0 -1 8 -33573577 -581702249 -175900713 -135407305 193986559
            -72818661 1202713599 -5246209</internalNodes>
          <leafValues>
            -9.1194730997085571e-01 8.6469966173171997e-01</leafValues></_></weakClassifiers></_>
    <!-- stage 3 -->
    <_>
      <maxWeakCount>2</maxWeakCount>
      <stageThreshold>-1.1198978871107101e-01</stageThreshold>
      <weakClassifiers>
        <_>
          <internalNodes>
            0 -1 4 -538969089 -1289757745 -236922417 -1320484966
            -154418705 -242238801 -424746523 -68419601</internalNodes>
          <leafValues>
            -9.2973524332046509e-01 8.8488745689392090e-01</leafValues></_>
        <_>
          <internalNodes>
            0 -1 11 -35652097 -33566470 -48889889 -1146357045 -605095430
            -73426786 -7392773 -1140902913</internalNodes>
          <leafValues>
            -9.3647879362106323e-01 8.1774544715881348e-01</leafValues></_></weakClassifiers></_>
    <!-- stage 4 -->
    <_>
      <maxWeakCount>2</maxWeakCount>
      <stageThreshold>-2.6514301076531410e-02</stageThreshold>
      <weakClassifiers>
        <_>
          <internalNodes>
            0 -1 10 -4521985 -4456449 -1 -4521985 -354485249 -360621
            -66566 -84214786</internalNodes>
          <leafValues>
            -8.2868331670761108e-01 8.6407124996185303e-01</leafValues></_>
        <_>
          <internalNodes>
            0 -1 9 -137366561 -622880006 -402272833 -1174417409
            344953747 -904216365 2005918703 -68422689</internalNodes>
          <leafValues>
            -8.9058554172515869e-01 8.1466734409332275e-01</leafValues></_></weakClassifiers></_>
    <!-- stage 5 -->
    <_>
      <maxWeakCount>2</maxWeakCount>
      <stageThreshold>-1.8747237324714661e-01</stageThreshold>
      <weakClassifiers>
        <_>
          <internalNodes>
            0 -1 2 -950796289 -248131537 -712453121 -548021345
            -610467841 -1484748577 -204521473 -44169</internalNodes>
          <leafValues>
            -9.4681441783905029e-01 8.0605691671371460e-01</leafValues></_>
        <_>
          <internalNodes>
            0 -1 13 -740302849 -39847509 1144456143 -12591682 -747637829
            -578035573 -134232389 -172624254</internalNodes>
          <leafValues>
            -9.0532588958740234e-01 7.5934201478958130e-01</leafValues></_></weakClassifiers></_>
    <!-- stage 6 -->
    <_>
      <maxWeakCount>2</maxWeakCount>
      <stageThreshold>-1.0059104859828949e-01</stageThreshold>
      <weakClassifiers>
        <_>
          <internalNodes>
            0 -1 12 -4305 -10521345 -1185426985 -10496743 37464191
            1932253643 -223625729 -5399</internalNodes>
          <leafValues>
            -9.2853093147277832e-01 7.7408635616302490e-01</leafValues></_>
        <_>
          <internalNodes>
            0 -1 7 -645929805 -749601793 -543957537 -103417827 791130027
            -1699884065 803595519 -3073</internalNodes>
          <leafValues>
            -8.1204199790954590e-01 8.2793986797332764e-01</leafValues></_></weakClassifiers></_>
    <!-- stage 7 -->
    <_>
      <maxWeakCount>2</maxWeakCount>
      <stageThreshold>-2.0244756340980530e-01</stageThreshold>
      <weakClassifiers>
        <_>
          <internalNodes>
            0 -1 0 -648022529 -44064559 -643998244 -541417328
            -1198855489 -19332983 -880551494 -1878390784</internalNodes>
          <leafValues>
            -9.2695075273513794e-01 7.9614323377609253e-01</leafValues></_>
        <_>
          <internalNodes>
            0 -1 18 -100796420 -789200549 -788413093 -880282407
            -115344433 -398343669 -68159493 -1392508993</internalNodes>
          <leafValues>
            -9.2942708730697632e-01 7.2450315952301025e-01</leafValues></_></weakClassifiers></_>
    <!-- stage 8 -->
    <_>
      <maxWeakCount>2</maxWeakCount>
      <stageThreshold>-2.2233414649963379e-01</stageThreshold>
      <weakClassifiers>
        <_>
          <internalNodes>
            0 -1 3 -136314881 -749485301 -1928204197 -112985005
            -209458245 -903638473 -606899945 2147432311</internalNodes>
          <leafValues>
            -9.5031774044036865e-01 7.6906967163085938e-01</leafValues></_>
        <_>
          <internalNodes>
            0 -1 6 1935135231 -770406049 -1652861473 -128328482
            -800476161 -709195045 -845811496 -7342358</internalNodes>
          <leafValues>
            -9.0092277526855469e-01 7.2798359394073486e-01</leafValues></_></weakClassifiers></_>
    <!-- stage 9 -->
    <_>
      <maxWeakCount>2</maxWeakCount>
      <stageThreshold>-1.3072842359542847e-01</stageThreshold>
      <weakClassifiers>
        <_>
          <internalNodes>
            0 -1 15 -94378241 1516047683 -125774339 1937768415
            -786315853 -136738597 -889020449 -1181013</internalNodes>
          <leafValues>
            -9.0949720144271851e-01 7.7771008014678955e-01</leafValues></_>
        <_>
          <internalNodes>
            0 -1 5 -1057817601 -136322729 1628143639 -10497289
            -917382403 -124285817 -242499075 -201588739</internalNodes>
          <leafValues>
            -8.4471714496612549e-01 7.7876877784729004e-01</leafValues></_></weakClassifiers></_></stages>
  <features>
    <_>
      <rect>
        0 0 7 1</rect></_>
    <_>
      <rect>
        0 19 7 4</rect></_>
    <_>
      <rect>
        0 24 4 4</rect></_>
    <_>
      <rect>
        0 25 1 5</rect></_>
    <_>
      <rect>
        2 5 7 7</rect></_>
    <_>
      <rect>
        2 9 3 4</rect></_>
    <_>
      <rect>
        2 16 7 2</rect></_>
    <_>
      <rect>
        2 28 3 2</rect></_>
    <_>
      <rect>
        2 30 3 3</rect></_>
    <_>
      <rect>
        3 4 6 9</rect></_>
    <_>
      <rect>
        3 13 3 3</rect></_>
    <_>
      <rect>
        3 13 6 4</rect></_>
    <_>
      <rect>
        3 33 5 2</rect></_>
    <_>
      <rect>
        9 12 2 6</rect></_>
    <_>
      <rect>
        10 22 5 6</rect></_>
    <_>
      <rect>
        13 29 4 2</rect></_>
    <_>
      <rect>
        14 28 3 3</rect></_>
    <_>
      <rect>
        18 14 2 8</rect></_>
    <_>
      <rect>
        19 2 2 6</rect></_></features></cascade>
</opencv_storage>
